{
  "activation_stats": "/home/homelab1/coding-local/ultimateLLM/uLLM-project/benchmarks/results/2026-07-01/aq/activation-r9700-calib32-qwen35-9b-s512",
  "activation_weighting_fallbacks": [
    {
      "candidate_id": "aq4_e4m3_g8_ts_flloyd16",
      "family": "linear_attn_qkv",
      "reason": "activation stats are missing for tensor model.language_model.layers.0.linear_attn.in_proj_qkv.weight",
      "tensor": "model.language_model.layers.0.linear_attn.in_proj_qkv.weight"
    },
    {
      "candidate_id": "aq4_e4m3_g8_ts_flloyd16",
      "family": "linear_attn_qkv",
      "reason": "activation stats are missing for tensor model.language_model.layers.1.linear_attn.in_proj_qkv.weight",
      "tensor": "model.language_model.layers.1.linear_attn.in_proj_qkv.weight"
    },
    {
      "candidate_id": "aq4_e4m3_g8_ts_flloyd16",
      "family": "linear_attn_qkv",
      "reason": "activation stats are missing for tensor model.language_model.layers.10.linear_attn.in_proj_qkv.weight",
      "tensor": "model.language_model.layers.10.linear_attn.in_proj_qkv.weight"
    },
    {
      "candidate_id": "aq4_e4m3_g8_ts_flloyd16",
      "family": "linear_attn_qkv",
      "reason": "activation stats are missing for tensor model.language_model.layers.14.linear_attn.in_proj_qkv.weight",
      "tensor": "model.language_model.layers.14.linear_attn.in_proj_qkv.weight"
    },
    {
      "candidate_id": "aq4_e4m3_g8_ts_flloyd16",
      "family": "linear_attn_a",
      "reason": "activation stats are missing for tensor model.language_model.layers.0.linear_attn.in_proj_a.weight",
      "tensor": "model.language_model.layers.0.linear_attn.in_proj_a.weight"
    },
    {
      "candidate_id": "aq4_e4m3_g8_ts_flloyd16",
      "family": "linear_attn_b",
      "reason": "activation stats are missing for tensor model.language_model.layers.0.linear_attn.in_proj_b.weight",
      "tensor": "model.language_model.layers.0.linear_attn.in_proj_b.weight"
    },
    {
      "candidate_id": "aq4_e4m3_g8_ts_flloyd16",
      "family": "linear_attn_z",
      "reason": "activation stats are missing for tensor model.language_model.layers.0.linear_attn.in_proj_z.weight",
      "tensor": "model.language_model.layers.0.linear_attn.in_proj_z.weight"
    },
    {
      "candidate_id": "aq4_e4m3_g8_ts_flloyd16",
      "family": "linear_attn_a",
      "reason": "activation stats are missing for tensor model.language_model.layers.1.linear_attn.in_proj_a.weight",
      "tensor": "model.language_model.layers.1.linear_attn.in_proj_a.weight"
    },
    {
      "candidate_id": "aq4_e4m3_g8_ts_flloyd16",
      "family": "linear_attn_b",
      "reason": "activation stats are missing for tensor model.language_model.layers.1.linear_attn.in_proj_b.weight",
      "tensor": "model.language_model.layers.1.linear_attn.in_proj_b.weight"
    },
    {
      "candidate_id": "aq4_e4m3_g8_ts_flloyd16",
      "family": "linear_attn_z",
      "reason": "activation stats are missing for tensor model.language_model.layers.1.linear_attn.in_proj_z.weight",
      "tensor": "model.language_model.layers.1.linear_attn.in_proj_z.weight"
    },
    {
      "candidate_id": "aq4_e4m3_g8_ts_flloyd16",
      "family": "linear_attn_a",
      "reason": "activation stats are missing for tensor model.language_model.layers.10.linear_attn.in_proj_a.weight",
      "tensor": "model.language_model.layers.10.linear_attn.in_proj_a.weight"
    },
    {
      "candidate_id": "aq4_e4m3_g8_ts_flloyd16",
      "family": "linear_attn_b",
      "reason": "activation stats are missing for tensor model.language_model.layers.10.linear_attn.in_proj_b.weight",
      "tensor": "model.language_model.layers.10.linear_attn.in_proj_b.weight"
    },
    {
      "candidate_id": "aq4_e4m3_g8_ts_flloyd16",
      "family": "linear_attn_z",
      "reason": "activation stats are missing for tensor model.language_model.layers.10.linear_attn.in_proj_z.weight",
      "tensor": "model.language_model.layers.10.linear_attn.in_proj_z.weight"
    },
    {
      "candidate_id": "aq4_e4m3_g8_ts_flloyd16",
      "family": "linear_attn_a",
      "reason": "activation stats are missing for tensor model.language_model.layers.12.linear_attn.in_proj_a.weight",
      "tensor": "model.language_model.layers.12.linear_attn.in_proj_a.weight"
    },
    {
      "candidate_id": "aq4_e4m3_g8_ts_flloyd16",
      "family": "linear_attn_b",
      "reason": "activation stats are missing for tensor model.language_model.layers.12.linear_attn.in_proj_b.weight",
      "tensor": "model.language_model.layers.12.linear_attn.in_proj_b.weight"
    },
    {
      "candidate_id": "aq4_e4m3_g8_ts_flloyd16",
      "family": "linear_attn_z",
      "reason": "activation stats are missing for tensor model.language_model.layers.12.linear_attn.in_proj_z.weight",
      "tensor": "model.language_model.layers.12.linear_attn.in_proj_z.weight"
    },
    {
      "candidate_id": "aq4_e4m3_g16_ts_flloyd16",
      "family": "linear_attn_qkv",
      "reason": "activation stats are missing for tensor model.language_model.layers.0.linear_attn.in_proj_qkv.weight",
      "tensor": "model.language_model.layers.0.linear_attn.in_proj_qkv.weight"
    },
    {
      "candidate_id": "aq4_e4m3_g16_ts_flloyd16",
      "family": "linear_attn_qkv",
      "reason": "activation stats are missing for tensor model.language_model.layers.1.linear_attn.in_proj_qkv.weight",
      "tensor": "model.language_model.layers.1.linear_attn.in_proj_qkv.weight"
    },
    {
      "candidate_id": "aq4_e4m3_g16_ts_flloyd16",
      "family": "linear_attn_qkv",
      "reason": "activation stats are missing for tensor model.language_model.layers.10.linear_attn.in_proj_qkv.weight",
      "tensor": "model.language_model.layers.10.linear_attn.in_proj_qkv.weight"
    },
    {
      "candidate_id": "aq4_e4m3_g16_ts_flloyd16",
      "family": "linear_attn_qkv",
      "reason": "activation stats are missing for tensor model.language_model.layers.14.linear_attn.in_proj_qkv.weight",
      "tensor": "model.language_model.layers.14.linear_attn.in_proj_qkv.weight"
    },
    {
      "candidate_id": "aq4_e4m3_g16_ts_flloyd16",
      "family": "linear_attn_a",
      "reason": "activation stats are missing for tensor model.language_model.layers.0.linear_attn.in_proj_a.weight",
      "tensor": "model.language_model.layers.0.linear_attn.in_proj_a.weight"
    },
    {
      "candidate_id": "aq4_e4m3_g16_ts_flloyd16",
      "family": "linear_attn_b",
      "reason": "activation stats are missing for tensor model.language_model.layers.0.linear_attn.in_proj_b.weight",
      "tensor": "model.language_model.layers.0.linear_attn.in_proj_b.weight"
    },
    {
      "candidate_id": "aq4_e4m3_g16_ts_flloyd16",
      "family": "linear_attn_z",
      "reason": "activation stats are missing for tensor model.language_model.layers.0.linear_attn.in_proj_z.weight",
      "tensor": "model.language_model.layers.0.linear_attn.in_proj_z.weight"
    },
    {
      "candidate_id": "aq4_e4m3_g16_ts_flloyd16",
      "family": "linear_attn_a",
      "reason": "activation stats are missing for tensor model.language_model.layers.1.linear_attn.in_proj_a.weight",
      "tensor": "model.language_model.layers.1.linear_attn.in_proj_a.weight"
    },
    {
      "candidate_id": "aq4_e4m3_g16_ts_flloyd16",
      "family": "linear_attn_b",
      "reason": "activation stats are missing for tensor model.language_model.layers.1.linear_attn.in_proj_b.weight",
      "tensor": "model.language_model.layers.1.linear_attn.in_proj_b.weight"
    },
    {
      "candidate_id": "aq4_e4m3_g16_ts_flloyd16",
      "family": "linear_attn_z",
      "reason": "activation stats are missing for tensor model.language_model.layers.1.linear_attn.in_proj_z.weight",
      "tensor": "model.language_model.layers.1.linear_attn.in_proj_z.weight"
    },
    {
      "candidate_id": "aq4_e4m3_g16_ts_flloyd16",
      "family": "linear_attn_a",
      "reason": "activation stats are missing for tensor model.language_model.layers.10.linear_attn.in_proj_a.weight",
      "tensor": "model.language_model.layers.10.linear_attn.in_proj_a.weight"
    },
    {
      "candidate_id": "aq4_e4m3_g16_ts_flloyd16",
      "family": "linear_attn_b",
      "reason": "activation stats are missing for tensor model.language_model.layers.10.linear_attn.in_proj_b.weight",
      "tensor": "model.language_model.layers.10.linear_attn.in_proj_b.weight"
    },
    {
      "candidate_id": "aq4_e4m3_g16_ts_flloyd16",
      "family": "linear_attn_z",
      "reason": "activation stats are missing for tensor model.language_model.layers.10.linear_attn.in_proj_z.weight",
      "tensor": "model.language_model.layers.10.linear_attn.in_proj_z.weight"
    },
    {
      "candidate_id": "aq4_e4m3_g16_ts_flloyd16",
      "family": "linear_attn_a",
      "reason": "activation stats are missing for tensor model.language_model.layers.12.linear_attn.in_proj_a.weight",
      "tensor": "model.language_model.layers.12.linear_attn.in_proj_a.weight"
    },
    {
      "candidate_id": "aq4_e4m3_g16_ts_flloyd16",
      "family": "linear_attn_b",
      "reason": "activation stats are missing for tensor model.language_model.layers.12.linear_attn.in_proj_b.weight",
      "tensor": "model.language_model.layers.12.linear_attn.in_proj_b.weight"
    },
    {
      "candidate_id": "aq4_e4m3_g16_ts_flloyd16",
      "family": "linear_attn_z",
      "reason": "activation stats are missing for tensor model.language_model.layers.12.linear_attn.in_proj_z.weight",
      "tensor": "model.language_model.layers.12.linear_attn.in_proj_z.weight"
    }
  ],
  "candidate_filter": [
    "aq4_e4m3_g16_ts_flloyd16",
    "aq4_e4m3_g8_ts_flloyd16"
  ],
  "codebooks": [
    {
      "candidate_id": "aq4_e4m3_g16_ts_flloyd16",
      "entry_count": 16,
      "family": "attn_k",
      "max": 0.983470618724823,
      "min": -0.9755017757415771,
      "values_f32": [
        -0.9755017757415771,
        -0.7362465858459473,
        -0.5544501543045044,
        -0.40449151396751404,
        -0.28721481561660767,
        -0.19295160472393036,
        -0.12009281665086746,
        -0.048438891768455505,
        0.02800757996737957,
        0.10553540289402008,
        0.19844995439052582,
        0.2965625822544098,
        0.4180525243282318,
        0.572964608669281,
        0.7572802901268005,
        0.983470618724823
      ],
      "weighting": "weighted"
    },
    {
      "candidate_id": "aq4_e4m3_g8_ts_flloyd16",
      "entry_count": 16,
      "family": "attn_k",
      "max": 0.9882520437240601,
      "min": -0.990843653678894,
      "values_f32": [
        -0.990843653678894,
        -0.8114315867424011,
        -0.643606960773468,
        -0.48552799224853516,
        -0.3473481237888336,
        -0.22998809814453125,
        -0.1380617767572403,
        -0.047596368938684464,
        0.04354913905262947,
        0.1331421136856079,
        0.2413855344057083,
        0.35959210991859436,
        0.48272842168807983,
        0.6185134053230286,
        0.7753607630729675,
        0.9882520437240601
      ],
      "weighting": "weighted"
    },
    {
      "candidate_id": "aq4_e4m3_g16_ts_flloyd16",
      "entry_count": 16,
      "family": "attn_o",
      "max": 0.9656966328620911,
      "min": -0.9672117829322815,
      "values_f32": [
        -0.9672117829322815,
        -0.731542706489563,
        -0.5515292882919312,
        -0.4094063341617584,
        -0.2952486574649811,
        -0.19822657108306885,
        -0.11342056840658188,
        -0.035728566348552704,
        0.03976715728640556,
        0.11640622466802597,
        0.19900019466876984,
        0.29488807916641235,
        0.40909186005592346,
        0.5499211549758911,
        0.7296640276908875,
        0.9656966328620911
      ],
      "weighting": "weighted"
    },
    {
      "candidate_id": "aq4_e4m3_g8_ts_flloyd16",
      "entry_count": 16,
      "family": "attn_o",
      "max": 0.9869267344474792,
      "min": -0.9871106743812561,
      "values_f32": [
        -0.9871106743812561,
        -0.7998248934745789,
        -0.636543869972229,
        -0.48794126510620117,
        -0.3579362630844116,
        -0.24349388480186462,
        -0.14169438183307648,
        -0.04647527635097504,
        0.0469881147146225,
        0.1429678201675415,
        0.2467036098241806,
        0.3600095510482788,
        0.4876563549041748,
        0.6325874924659729,
        0.7958188056945801,
        0.9869267344474792
      ],
      "weighting": "weighted"
    },
    {
      "candidate_id": "aq4_e4m3_g16_ts_flloyd16",
      "entry_count": 16,
      "family": "attn_q",
      "max": 0.9714587330818176,
      "min": -0.9718764424324036,
      "values_f32": [
        -0.9718764424324036,
        -0.7369953393936157,
        -0.5549892783164978,
        -0.4011533558368683,
        -0.30901089310646057,
        -0.21119946241378784,
        -0.12385712563991547,
        -0.037059467285871506,
        0.02483217976987362,
        0.10590722411870956,
        0.20569656789302826,
        0.31038209795951843,
        0.4261859059333801,
        0.5727977156639099,
        0.746346116065979,
        0.9714587330818176
      ],
      "weighting": "weighted"
    },
    {
      "candidate_id": "aq4_e4m3_g8_ts_flloyd16",
      "entry_count": 16,
      "family": "attn_q",
      "max": 0.989494800567627,
      "min": -0.9870779514312744,
      "values_f32": [
        -0.9870779514312744,
        -0.8025863766670227,
        -0.6263676881790161,
        -0.4779597818851471,
        -0.36659136414527893,
        -0.24735276401042938,
        -0.1285518854856491,
        -0.026844091713428497,
        0.04797850549221039,
        0.14845679700374603,
        0.24370400607585907,
        0.3521502614021301,
        0.48758649826049805,
        0.633357048034668,
        0.7995754480361938,
        0.989494800567627
      ],
      "weighting": "weighted"
    },
    {
      "candidate_id": "aq4_e4m3_g16_ts_flloyd16",
      "entry_count": 16,
      "family": "attn_v",
      "max": 0.9755547642707825,
      "min": -0.972255527973175,
      "values_f32": [
        -0.972255527973175,
        -0.7172050476074219,
        -0.5402605533599854,
        -0.39682701230049133,
        -0.2785494327545166,
        -0.17366360127925873,
        -0.07894378155469894,
        -0.019134117290377617,
        0.022638581693172455,
        0.10378829389810562,
        0.18968254327774048,
        0.28726938366889954,
        0.40180957317352295,
        0.5418602824211121,
        0.7273571491241455,
        0.9755547642707825
      ],
      "weighting": "weighted"
    },
    {
      "candidate_id": "aq4_e4m3_g8_ts_flloyd16",
      "entry_count": 16,
      "family": "attn_v",
      "max": 0.9898068904876709,
      "min": -0.9899899363517761,
      "values_f32": [
        -0.9899899363517761,
        -0.8019436597824097,
        -0.6293545365333557,
        -0.4742959439754486,
        -0.34170806407928467,
        -0.22063814103603363,
        -0.10953692346811295,
        -0.026831837370991707,
        0.024866728112101555,
        0.09620461612939835,
        0.205043226480484,
        0.329977810382843,
        0.4654461443424225,
        0.6235567927360535,
        0.7993274927139282,
        0.9898068904876709
      ],
      "weighting": "weighted"
    },
    {
      "candidate_id": "aq4_e4m3_g16_ts_flloyd16",
      "entry_count": 16,
      "family": "linear_attn_a",
      "max": 0.9687179327011108,
      "min": -0.9690099954605103,
      "values_f32": [
        -0.9690099954605103,
        -0.7364528775215149,
        -0.5580485463142395,
        -0.41615739464759827,
        -0.3008936643600464,
        -0.20354565978050232,
        -0.11785046756267548,
        -0.038505829870700836,
        0.03861544653773308,
        0.11741869896650314,
        0.20262591540813446,
        0.2999308407306671,
        0.41572675108909607,
        0.5573327541351318,
        0.7364499568939209,
        0.9687179327011108
      ],
      "weighting": "unweighted_missing_activation_stats"
    },
    {
      "candidate_id": "aq4_e4m3_g8_ts_flloyd16",
      "entry_count": 16,
      "family": "linear_attn_a",
      "max": 0.9881040453910828,
      "min": -0.9879913330078125,
      "values_f32": [
        -0.9879913330078125,
        -0.8027245998382568,
        -0.6388397812843323,
        -0.49302375316619873,
        -0.36310648918151855,
        -0.2477695196866989,
        -0.14380928874015808,
        -0.047166552394628525,
        0.046681664884090424,
        0.14262086153030396,
        0.24576398730278015,
        0.36157160997390747,
        0.49195560812950134,
        0.6376951932907104,
        0.8010170459747314,
        0.9881040453910828
      ],
      "weighting": "unweighted_missing_activation_stats"
    },
    {
      "candidate_id": "aq4_e4m3_g16_ts_flloyd16",
      "entry_count": 16,
      "family": "linear_attn_b",
      "max": 0.9671053886413574,
      "min": -0.968881368637085,
      "values_f32": [
        -0.968881368637085,
        -0.7261977791786194,
        -0.5403612852096558,
        -0.3972935378551483,
        -0.28437933325767517,
        -0.19152961671352386,
        -0.11098818480968475,
        -0.03748749569058418,
        0.03333422541618347,
        0.10699877887964249,
        0.18762202560901642,
        0.2810986042022705,
        0.39522841572761536,
        0.5395522117614746,
        0.7235116958618164,
        0.9671053886413574
      ],
      "weighting": "unweighted_missing_activation_stats"
    },
    {
      "candidate_id": "aq4_e4m3_g8_ts_flloyd16",
      "entry_count": 16,
      "family": "linear_attn_b",
      "max": 0.9875032305717468,
      "min": -0.9883311986923218,
      "values_f32": [
        -0.9883311986923218,
        -0.7975649237632751,
        -0.6293318271636963,
        -0.48083633184432983,
        -0.35137939453125,
        -0.2388557642698288,
        -0.1390542984008789,
        -0.04692523181438446,
        0.0415177047252655,
        0.13307836651802063,
        0.2321498990058899,
        0.3440873622894287,
        0.4743901491165161,
        0.6243298053741455,
        0.7935779094696045,
        0.9875032305717468
      ],
      "weighting": "unweighted_missing_activation_stats"
    },
    {
      "candidate_id": "aq4_e4m3_g16_ts_flloyd16",
      "entry_count": 16,
      "family": "linear_attn_out",
      "max": 0.9636456966400146,
      "min": -0.9674595594406128,
      "values_f32": [
        -0.9674595594406128,
        -0.735535740852356,
        -0.5570056438446045,
        -0.4160585105419159,
        -0.2965709865093231,
        -0.19609332084655762,
        -0.1090782955288887,
        -0.028665170073509216,
        0.013968749903142452,
        0.10001471638679504,
        0.192678764462471,
        0.29301217198371887,
        0.41166356205940247,
        0.553778886795044,
        0.7325609922409058,
        0.9636456966400146
      ],
      "weighting": "weighted"
    },
    {
      "candidate_id": "aq4_e4m3_g8_ts_flloyd16",
      "entry_count": 16,
      "family": "linear_attn_out",
      "max": 0.9876903295516968,
      "min": -0.986763060092926,
      "values_f32": [
        -0.986763060092926,
        -0.7985917329788208,
        -0.635179340839386,
        -0.4855673611164093,
        -0.3520355522632599,
        -0.23407229781150818,
        -0.1251736879348755,
        -0.026054324582219124,
        0.026388943195343018,
        0.126186341047287,
        0.2383234202861786,
        0.36090216040611267,
        0.4915946125984192,
        0.6392702460289001,
        0.8013083338737488,
        0.9876903295516968
      ],
      "weighting": "weighted"
    },
    {
      "candidate_id": "aq4_e4m3_g16_ts_flloyd16",
      "entry_count": 16,
      "family": "linear_attn_qkv",
      "max": 0.9687549471855164,
      "min": -0.9690523743629456,
      "values_f32": [
        -0.9690523743629456,
        -0.7411647439002991,
        -0.5640125274658203,
        -0.42199403047561646,
        -0.3058551847934723,
        -0.20743075013160706,
        -0.120361328125,
        -0.039209142327308655,
        0.0399574376642704,
        0.12146764993667603,
        0.20861616730690002,
        0.30703628063201904,
        0.423013836145401,
        0.5645784735679626,
        0.740960419178009,
        0.9687549471855164
      ],
      "weighting": "unweighted_missing_activation_stats"
    },
    {
      "candidate_id": "aq4_e4m3_g8_ts_flloyd16",
      "entry_count": 16,
      "family": "linear_attn_qkv",
      "max": 0.9883131384849548,
      "min": -0.9882339239120483,
      "values_f32": [
        -0.9882339239120483,
        -0.804415225982666,
        -0.641560971736908,
        -0.49532943964004517,
        -0.3647768795490265,
        -0.24931606650352478,
        -0.14488202333450317,
        -0.04690605029463768,
        0.04867667332291603,
        0.14648321270942688,
        0.25098708271980286,
        0.36691051721572876,
        0.4968920350074768,
        0.6424059271812439,
        0.8051738142967224,
        0.9883131384849548
      ],
      "weighting": "unweighted_missing_activation_stats"
    },
    {
      "candidate_id": "aq4_e4m3_g16_ts_flloyd16",
      "entry_count": 16,
      "family": "linear_attn_z",
      "max": 0.9691538214683533,
      "min": -0.9690030813217163,
      "values_f32": [
        -0.9690030813217163,
        -0.7409810423851013,
        -0.5641897320747375,
        -0.4235926866531372,
        -0.3076210916042328,
        -0.2092399150133133,
        -0.12117870897054672,
        -0.03896240144968033,
        0.04139988124370575,
        0.12318287789821625,
        0.21010945737361908,
        0.30861279368400574,
        0.4245515465736389,
        0.5655394792556763,
        0.7413626313209534,
        0.9691538214683533
      ],
      "weighting": "unweighted_missing_activation_stats"
    },
    {
      "candidate_id": "aq4_e4m3_g8_ts_flloyd16",
      "entry_count": 16,
      "family": "linear_attn_z",
      "max": 0.9885976910591125,
      "min": -0.9884418249130249,
      "values_f32": [
        -0.9884418249130249,
        -0.8053160905838013,
        -0.6428507566452026,
        -0.496712327003479,
        -0.3665282428264618,
        -0.2509205639362335,
        -0.14611269533634186,
        -0.047664497047662735,
        0.048562441021203995,
        0.14714832603931427,
        0.2516424059867859,
        0.3675156235694885,
        0.49814605712890625,
        0.6444244980812073,
        0.8067944049835205,
        0.9885976910591125
      ],
      "weighting": "unweighted_missing_activation_stats"
    },
    {
      "candidate_id": "aq4_e4m3_g16_ts_flloyd16",
      "entry_count": 16,
      "family": "mlp_down",
      "max": 0.9669488668441772,
      "min": -0.9670200347900391,
      "values_f32": [
        -0.9670200347900391,
        -0.7340726256370544,
        -0.5583727359771729,
        -0.41860872507095337,
        -0.30932438373565674,
        -0.2174360454082489,
        -0.13055378198623657,
        -0.05650078132748604,
        0.015506245195865631,
        0.09770334511995316,
        0.18864570558071136,
        0.2897805869579315,
        0.393835186958313,
        0.5471386909484863,
        0.7318419218063354,
        0.9669488668441772
      ],
      "weighting": "weighted"
    },
    {
      "candidate_id": "aq4_e4m3_g8_ts_flloyd16",
      "entry_count": 16,
      "family": "mlp_down",
      "max": 0.9889578819274902,
      "min": -0.9855634570121765,
      "values_f32": [
        -0.9855634570121765,
        -0.8071622848510742,
        -0.6345018744468689,
        -0.4831618368625641,
        -0.353594034910202,
        -0.23796266317367554,
        -0.13495513796806335,
        -0.033927444368600845,
        0.055275704711675644,
        0.13552269339561462,
        0.2303721159696579,
        0.34891605377197266,
        0.49063193798065186,
        0.6417054533958435,
        0.8021954894065857,
        0.9889578819274902
      ],
      "weighting": "weighted"
    },
    {
      "candidate_id": "aq4_e4m3_g16_ts_flloyd16",
      "entry_count": 16,
      "family": "mlp_gate",
      "max": 0.9722164273262024,
      "min": -0.9639515280723572,
      "values_f32": [
        -0.9639515280723572,
        -0.7193621397018433,
        -0.5421015024185181,
        -0.41440635919570923,
        -0.3121204674243927,
        -0.2189885377883911,
        -0.1293105185031891,
        -0.043810244649648666,
        0.03622607886791229,
        0.12048079073429108,
        0.20892201364040375,
        0.3080174922943115,
        0.42613330483436584,
        0.5704758167266846,
        0.7466040849685669,
        0.9722164273262024
      ],
      "weighting": "weighted"
    },
    {
      "candidate_id": "aq4_e4m3_g8_ts_flloyd16",
      "entry_count": 16,
      "family": "mlp_gate",
      "max": 0.9890477657318115,
      "min": -0.987598717212677,
      "values_f32": [
        -0.987598717212677,
        -0.7875131964683533,
        -0.6327019333839417,
        -0.48974812030792236,
        -0.3675138056278229,
        -0.26224085688591003,
        -0.1618381291627884,
        -0.06034336984157562,
        0.047689031809568405,
        0.14958180487155914,
        0.25622862577438354,
        0.3725142776966095,
        0.4987708330154419,
        0.6432023644447327,
        0.8047817349433899,
        0.9890477657318115
      ],
      "weighting": "weighted"
    },
    {
      "candidate_id": "aq4_e4m3_g16_ts_flloyd16",
      "entry_count": 16,
      "family": "mlp_up",
      "max": 0.9665421843528748,
      "min": -0.9690137505531311,
      "values_f32": [
        -0.9690137505531311,
        -0.739391565322876,
        -0.5619684457778931,
        -0.41885748505592346,
        -0.30174365639686584,
        -0.19637137651443481,
        -0.1030464768409729,
        -0.03041205368936062,
        0.03873763605952263,
        0.11550883948802948,
        0.2061484307050705,
        0.3028169572353363,
        0.41945844888687134,
        0.5542199611663818,
        0.7331449389457703,
        0.9665421843528748
      ],
      "weighting": "weighted"
    },
    {
      "candidate_id": "aq4_e4m3_g8_ts_flloyd16",
      "entry_count": 16,
      "family": "mlp_up",
      "max": 0.9887785315513611,
      "min": -0.9883933067321777,
      "values_f32": [
        -0.9883933067321777,
        -0.8090882897377014,
        -0.638929545879364,
        -0.48539504408836365,
        -0.3521941006183624,
        -0.2324254810810089,
        -0.1229022964835167,
        -0.029523979872465134,
        0.03729052469134331,
        0.12596996128559113,
        0.24446988105773926,
        0.36380311846733093,
        0.491213321685791,
        0.6378000974655151,
        0.8029547929763794,
        0.9887785315513611
      ],
      "weighting": "weighted"
    }
  ],
  "family_filter": [
    "mlp_down",
    "mlp_gate",
    "mlp_up",
    "linear_attn_a",
    "linear_attn_b",
    "linear_attn_qkv",
    "linear_attn_z",
    "linear_attn_out",
    "attn_q",
    "attn_k",
    "attn_v",
    "attn_o"
  ],
  "max_elements_per_tensor": 262144,
  "max_tensors": 96,
  "max_tensors_per_family": 4,
  "missing_activation_stats": "unweighted",
  "model_dir": "/home/homelab1/datapool/ai_models/safetensors/Qwen/Qwen3.5-9B",
  "notes": [
    "p4p6_full_family_export"
  ],
  "schema_version": "aq-family-codebook-export-v0.1",
  "seed": 0,
  "tensor_names": [
    "model.language_model.layers.14.mlp.down_proj.weight",
    "model.language_model.layers.14.mlp.gate_proj.weight",
    "model.language_model.layers.14.mlp.up_proj.weight",
    "model.language_model.layers.15.mlp.down_proj.weight",
    "model.language_model.layers.15.mlp.gate_proj.weight",
    "model.language_model.layers.15.mlp.up_proj.weight",
    "model.language_model.layers.25.mlp.down_proj.weight",
    "model.language_model.layers.26.mlp.down_proj.weight",
    "model.language_model.layers.26.mlp.gate_proj.weight",
    "model.language_model.layers.26.mlp.up_proj.weight",
    "model.language_model.layers.27.mlp.gate_proj.weight",
    "model.language_model.layers.0.mlp.up_proj.weight",
    "model.language_model.layers.0.linear_attn.in_proj_qkv.weight",
    "model.language_model.layers.1.linear_attn.in_proj_qkv.weight",
    "model.language_model.layers.10.linear_attn.in_proj_qkv.weight",
    "model.language_model.layers.11.self_attn.q_proj.weight",
    "model.language_model.layers.14.linear_attn.in_proj_qkv.weight",
    "model.language_model.layers.15.self_attn.q_proj.weight",
    "model.language_model.layers.19.self_attn.q_proj.weight",
    "model.language_model.layers.23.self_attn.q_proj.weight",
    "model.language_model.layers.0.linear_attn.in_proj_a.weight",
    "model.language_model.layers.0.linear_attn.in_proj_b.weight",
    "model.language_model.layers.0.linear_attn.in_proj_z.weight",
    "model.language_model.layers.0.linear_attn.out_proj.weight",
    "model.language_model.layers.1.linear_attn.in_proj_a.weight",
    "model.language_model.layers.1.linear_attn.in_proj_b.weight",
    "model.language_model.layers.1.linear_attn.in_proj_z.weight",
    "model.language_model.layers.1.linear_attn.out_proj.weight",
    "model.language_model.layers.10.linear_attn.in_proj_a.weight",
    "model.language_model.layers.10.linear_attn.in_proj_b.weight",
    "model.language_model.layers.10.linear_attn.in_proj_z.weight",
    "model.language_model.layers.10.linear_attn.out_proj.weight",
    "model.language_model.layers.11.self_attn.k_proj.weight",
    "model.language_model.layers.11.self_attn.o_proj.weight",
    "model.language_model.layers.11.self_attn.v_proj.weight",
    "model.language_model.layers.12.linear_attn.in_proj_a.weight",
    "model.language_model.layers.12.linear_attn.in_proj_b.weight",
    "model.language_model.layers.12.linear_attn.in_proj_z.weight",
    "model.language_model.layers.12.linear_attn.out_proj.weight",
    "model.language_model.layers.15.self_attn.k_proj.weight",
    "model.language_model.layers.15.self_attn.o_proj.weight",
    "model.language_model.layers.15.self_attn.v_proj.weight",
    "model.language_model.layers.19.self_attn.k_proj.weight",
    "model.language_model.layers.19.self_attn.o_proj.weight",
    "model.language_model.layers.19.self_attn.v_proj.weight",
    "model.language_model.layers.23.self_attn.k_proj.weight",
    "model.language_model.layers.23.self_attn.o_proj.weight",
    "model.language_model.layers.23.self_attn.v_proj.weight"
  ],
  "timestamp_utc": "2026-06-30T18:30:13.956854+00:00",
  "weighted_codebook": true
}